FANN_FLO_2.1
num_layers=3
learning_rate=0.700000
connection_rate=1.000000
network_type=0
learning_momentum=0.000000
training_algorithm=2
train_error_function=1
train_stop_function=0
cascade_output_change_fraction=0.010000
quickprop_decay=-0.000100
quickprop_mu=1.750000
rprop_increase_factor=1.200000
rprop_decrease_factor=0.500000
rprop_delta_min=0.000000
rprop_delta_max=50.000000
rprop_delta_zero=0.100000
cascade_output_stagnation_epochs=12
cascade_candidate_change_fraction=0.010000
cascade_candidate_stagnation_epochs=12
cascade_max_out_epochs=150
cascade_min_out_epochs=50
cascade_max_cand_epochs=150
cascade_min_cand_epochs=50
cascade_num_candidate_groups=2
bit_fail_limit=3.49999994039535520000e-001
cascade_candidate_limit=1.00000000000000000000e+003
cascade_weight_multiplier=4.00000005960464480000e-001
cascade_activation_functions_count=10
cascade_activation_functions=3 5 7 8 10 11 14 15 16 17 
cascade_activation_steepnesses_count=4
cascade_activation_steepnesses=2.50000000000000000000e-001 5.00000000000000000000e-001 7.50000000000000000000e-001 1.00000000000000000000e+000 
layer_sizes=7 25 5 
scale_included=0
neurons (num_inputs, activation_function, activation_steepness)=(0, 0, 0.00000000000000000000e+000) (0, 0, 0.00000000000000000000e+000) (0, 0, 0.00000000000000000000e+000) (0, 0, 0.00000000000000000000e+000) (0, 0, 0.00000000000000000000e+000) (0, 0, 0.00000000000000000000e+000) (0, 0, 0.00000000000000000000e+000) (7, 5, 9.99999977648258210000e-003) (7, 5, 9.99999977648258210000e-003) (7, 5, 9.99999977648258210000e-003) (7, 5, 9.99999977648258210000e-003) (7, 5, 9.99999977648258210000e-003) (7, 5, 9.99999977648258210000e-003) (7, 5, 9.99999977648258210000e-003) (7, 5, 9.99999977648258210000e-003) (7, 5, 9.99999977648258210000e-003) (7, 5, 9.99999977648258210000e-003) (7, 5, 9.99999977648258210000e-003) (7, 5, 9.99999977648258210000e-003) (7, 5, 9.99999977648258210000e-003) (7, 5, 9.99999977648258210000e-003) (7, 5, 9.99999977648258210000e-003) (7, 5, 9.99999977648258210000e-003) (7, 5, 9.99999977648258210000e-003) (7, 5, 9.99999977648258210000e-003) (7, 5, 9.99999977648258210000e-003) (7, 5, 9.99999977648258210000e-003) (7, 5, 9.99999977648258210000e-003) (7, 5, 9.99999977648258210000e-003) (7, 5, 9.99999977648258210000e-003) (7, 5, 9.99999977648258210000e-003) (0, 0, 0.00000000000000000000e+000) (25, 5, 9.99999977648258210000e-003) (25, 5, 9.99999977648258210000e-003) (25, 5, 9.99999977648258210000e-003) (25, 5, 9.99999977648258210000e-003) (0, 0, 0.00000000000000000000e+000) 
connections (connected_to_neuron, weight)=(0, -4.70907859802246090000e+001) (1, 2.64350414276123050000e+001) (2, -2.47333507537841800000e+001) (3, 1.62208957672119140000e+001) (4, 3.11922683715820310000e+001) (5, 4.67814302444458010000e+000) (6, 1.29747450351715090000e+000) (0, 5.17375717163085940000e+001) (1, 2.58385833740234370000e+002) (2, -3.03881469726562500000e+002) (3, 1.40564682006835940000e+002) (4, 7.60816528320312500000e+002) (5, 6.89807067871093750000e+002) (6, -1.67197372436523440000e+002) (0, 2.12791099548339840000e+001) (1, -2.22287025451660160000e+001) (2, 4.45753326416015630000e+001) (3, 5.00541877746582030000e+001) (4, -1.81557297706604000000e+000) (5, -1.85235271453857420000e+001) (6, -4.20997886657714840000e+001) (0, 2.80355224609375000000e+001) (1, -2.23965282440185550000e+001) (2, 7.70884552001953120000e+001) (3, 5.71254539489746090000e+001) (4, -6.15780677795410160000e+001) (5, -3.81496834754943850000e+000) (6, 5.86411094665527340000e+000) (0, -2.39453601837158200000e+000) (1, 5.53814220428466800000e+000) (2, -8.88792216777801510000e-001) (3, -1.31748943328857420000e+001) (4, 2.55587410926818850000e+000) (5, 3.05135893821716310000e+000) (6, 1.38867342472076420000e+000) (0, -4.22639579772949220000e+001) (1, -2.37473220825195310000e+001) (2, -5.68326072692871090000e+001) (3, -4.51253852844238280000e+001) (4, -2.35280731201171870000e+002) (5, 1.61880264282226560000e+001) (6, 2.08022251129150390000e+001) (0, 3.63832015991210940000e+001) (1, 1.03459348678588870000e+001) (2, 2.34402770996093750000e+001) (3, 6.28961944580078120000e+000) (4, -1.51915645599365230000e+001) (5, -1.70016689300537110000e+001) (6, 2.72474169731140140000e+000) (0, -9.15532970428466800000e+000) (1, 3.83053231239318850000e+000) (2, 6.36359310150146480000e+000) (3, -2.00488716363906860000e-001) (4, -1.16356575489044190000e+000) (5, 7.58242726325988770000e-001) (6, 1.33400309085845950000e+000) (0, 8.53406238555908200000e+000) (1, -6.58446807861328130000e+001) (2, 1.99084033966064450000e+001) (3, 3.38672515869140620000e+002) (4, -2.27993621826171880000e+001) (5, -2.64754272460937500000e+002) (6, 2.39780616760253910000e+001) (0, -2.97184371948242190000e+000) (1, 1.45877494812011720000e+001) (2, -6.82809495925903320000e+000) (3, -5.67723083496093750000e+000) (4, -1.16153860092163090000e+001) (5, 6.22584962844848630000e+000) (6, 3.81524944305419920000e+000) (0, 6.38357086181640630000e+001) (1, 5.78856515884399410000e+000) (2, -5.18945808410644530000e+001) (3, -9.62756500244140630000e+001) (4, 4.34654464721679690000e+001) (5, 1.69026840209960940000e+002) (6, 1.88223683834075930000e+000) (0, -4.21270904541015630000e+001) (1, 9.10715878009796140000e-001) (2, -2.21921672821044920000e+001) (3, 1.54668464660644530000e+001) (4, 3.27826881408691410000e+001) (5, 1.75343551635742190000e+001) (6, -8.69181156158447270000e-002) (0, -3.15486788749694820000e+000) (1, 8.37177455425262450000e-001) (2, 7.43701934814453130000e+000) (3, -2.96371960639953610000e+000) (4, 2.70724334716796870000e+001) (5, 1.42738533020019530000e+001) (6, 1.27308368682861330000e+001) (0, -7.06878356933593750000e+001) (1, -1.91746139526367190000e+001) (2, -7.20771179199218750000e+001) (3, -1.17841239929199220000e+002) (4, -2.09296142578125000000e+002) (5, 3.57547874450683590000e+001) (6, 6.89503250122070310000e+001) (0, -4.51166343688964840000e+001) (1, 2.06844067573547360000e+000) (2, -2.16529197692871090000e+001) (3, 1.81243686676025390000e+001) (4, 7.23450012207031250000e+001) (5, 5.83260631561279300000e+000) (6, 9.63685226440429690000e+000) (0, -4.20200300216674800000e+000) (1, -1.74100234985351560000e+002) (2, 2.72953929901123050000e+001) (3, 5.74153852462768550000e+000) (4, 1.82145324707031250000e+002) (5, -6.02185678482055660000e+000) (6, 4.35312232971191410000e+001) (0, -1.09997993469238280000e+002) (1, -4.80650672912597660000e+001) (2, -1.40971420288085940000e+002) (3, -5.57854423522949220000e+001) (4, 4.47517150878906250000e+002) (5, 3.05241668701171870000e+002) (6, -3.53653297424316410000e+001) (0, -2.42923212051391600000e+000) (1, 9.04504394531250000000e+000) (2, -1.64322197437286380000e+000) (3, -1.32830057144165040000e+001) (4, 2.59658598899841310000e+000) (5, 2.83138227462768550000e+000) (6, 1.53414213657379150000e+000) (0, -3.42230987548828120000e+000) (1, 4.99415636062622070000e+000) (2, 7.08961486816406250000e+000) (3, -9.15893554687500000000e+000) (4, 1.27167167663574220000e+001) (5, -5.04008178710937500000e+001) (6, 2.77688884735107420000e+001) (0, 3.11188373565673830000e+001) (1, 2.11882286071777340000e+001) (2, 6.46123075485229490000e+000) (3, -1.07221008300781250000e+002) (4, 3.97131752967834470000e+000) (5, -5.02159881591796870000e+000) (6, 4.51892518997192380000e+000) (0, -6.57182931900024410000e+000) (1, 1.21094694137573240000e+001) (2, -1.52373862266540530000e+000) (3, -2.37611789703369140000e+001) (4, 4.74899911880493160000e+000) (5, 7.79419040679931640000e+000) (6, 3.15465211868286130000e+000) (0, 9.59572601318359380000e+001) (1, 2.41270275115966800000e+001) (2, 5.66200683593750000000e+002) (3, -1.50000000000000000000e+003) (4, -7.71391845703125000000e+002) (5, 2.43508163452148440000e+002) (6, 2.24163746833801270000e+000) (0, -4.71414909362792970000e+001) (1, 8.78231048583984380000e+000) (2, -2.56557369232177730000e+001) (3, 1.60570259094238280000e+001) (4, 3.07483024597167970000e+001) (5, 5.41001701354980470000e+000) (6, -2.52207994461059570000e-001) (0, -3.04060649871826170000e+000) (1, 5.61667919158935550000e+000) (2, -4.99330699443817140000e-001) (3, -1.47457294464111330000e+001) (4, 2.34928417205810550000e+000) (5, 3.56407928466796870000e+000) (6, 1.37593019008636470000e+000) (7, -9.34128112792968750000e+001) (8, -9.52489318847656250000e+001) (9, 5.64929122924804690000e+001) (10, 9.12311630249023440000e+001) (11, -1.23243347167968750000e+002) (12, -8.77828884124755860000e+000) (13, 5.15612487792968750000e+001) (14, 8.66655578613281250000e+001) (15, -4.25018463134765620000e+001) (16, 3.46018719673156740000e+000) (17, -9.42142295837402340000e+000) (18, -9.32831802368164060000e+001) (19, -1.58359122276306150000e+000) (20, -7.76901092529296880000e+001) (21, -4.37149963378906250000e+001) (22, -1.06819633483886720000e+002) (23, 1.45483779907226560000e+002) (24, -1.44957199096679690000e+002) (25, 5.32872772216796870000e+000) (26, -1.45027675628662110000e+001) (27, -9.06131286621093750000e+001) (28, 4.23143386840820310000e+000) (29, -9.61463317871093750000e+001) (30, -6.89013977050781250000e+001) (31, -1.84576148986816410000e+001) (7, 3.34678888320922850000e+000) (8, -1.04811012268066410000e+002) (9, -1.73615264892578120000e+002) (10, -4.80358266830444340000e+000) (11, -3.58965950012207030000e+001) (12, 1.74806270599365230000e+001) (13, -1.74424972534179690000e+001) (14, -2.40240287780761720000e+001) (15, 2.17792190551757810000e+002) (16, 3.33274261474609370000e+002) (17, 1.59881591796875000000e+002) (18, -7.61975784301757810000e+001) (19, 4.85585546493530270000e+000) (20, 2.05809545516967770000e+000) (21, 7.23817348480224610000e+000) (22, 5.75824966430664060000e+001) (23, 1.02851364135742190000e+002) (24, -3.87844810485839840000e+001) (25, -6.60434198379516600000e+000) (26, -8.96807708740234370000e+001) (27, 7.31839752197265630000e+001) (28, 5.64108657836914060000e+001) (29, 1.78394908905029300000e+001) (30, 1.81197757720947270000e+001) (31, 1.31266660690307620000e+001) (7, -3.31856040954589840000e+001) (8, 8.83574447631835940000e+001) (9, 3.16112030029296870000e+002) (10, 2.34648895263671880000e+001) (11, 5.47980773925781250000e+002) (12, -2.49680213928222660000e+001) (13, 3.55908608436584470000e+000) (14, 2.97133007049560550000e+001) (15, -1.99986572265625000000e+001) (16, 4.09943481445312500000e+002) (17, -4.61435050964355470000e+001) (18, 1.78034179687500000000e+002) (19, 1.20852565765380860000e+000) (20, -1.78805084228515630000e+001) (21, 8.89087677001953130000e+001) (22, 6.01426124572753910000e+001) (23, -1.56131881713867190000e+002) (24, 1.12475837707519530000e+002) (25, -3.65085639953613280000e+001) (26, 5.35959854125976560000e+001) (27, -2.42450785636901860000e+000) (28, -5.04816007614135740000e+000) (29, -1.05979328155517580000e+001) (30, 1.72632537841796870000e+002) (31, 1.88405342102050780000e+001) (7, 3.14278068542480470000e+001) (8, 9.68458786010742190000e+001) (9, -1.18407096862792970000e+001) (10, -1.52552551269531250000e+002) (11, -2.68290824890136720000e+001) (12, 3.34945030212402340000e+001) (13, 1.17988319396972660000e+001) (14, 4.32421684265136720000e+001) (15, -1.52413101196289060000e+002) (16, -5.11991004943847660000e+001) (17, 1.07364625930786130000e+001) (18, 1.23466445922851560000e+002) (19, -2.00973793864250180000e-001) (20, 8.60472717285156250000e+001) (21, 6.03560829162597660000e+001) (22, 6.92767410278320310000e+001) (23, -1.73203140258789060000e+002) (24, -2.51558189392089840000e+001) (25, 9.22131881713867190000e+001) (26, 9.40668392181396480000e+000) (27, 3.33710289001464840000e+001) (28, -3.96379051208496090000e+001) (29, 2.67509174346923830000e+001) (30, -4.39683990478515620000e+001) (31, 1.09634323120117190000e+002) 
